<?xml version="1.0"?>
<opencv_storage>
<cascade>
  <stageType>BOOST</stageType>
  <featureType>HAAR</featureType>
  <height>24</height>
  <width>24</width>
  <stageParams>
    <boostType>GAB</boostType>
    <minHitRate>9.9500000476837158e-01</minHitRate>
    <maxFalseAlarm>5.0000000000000000e-01</maxFalseAlarm>
    <weightTrimRate>9.4999998807907104e-01</weightTrimRate>
    <maxDepth>1</maxDepth>
    <maxWeakCount>100</maxWeakCount></stageParams>
  <featureParams>
    <maxCatCount>0</maxCatCount>
    <featSize>1</featSize>
    <mode>BASIC</mode></featureParams>
  <stageNum>10</stageNum>
  <stages>
    <!-- stage 0 -->
    <_>
      <maxWeakCount>8</maxWeakCount>
      <stageThreshold>-1.6864479780197144e+00</stageThreshold>
      <weakClassifiers>
        <_>
          <internalNodes>
            0 -1 85 -1.3059195876121521e-01</internalNodes>
          <leafValues>
            5.9712231159210205e-01 -7.8956782817840576e-01</leafValues></_>
        <_>
          <internalNodes>
            0 -1 1 -1.9889818504452705e-03</internalNodes>
          <leafValues>
            -7.7833926677703857e-01 1.3913559913635254e-01</leafValues></_>
        <_>
          <internalNodes>
            0 -1 58 -4.2320549488067627e-02</internalNodes>
          <leafValues>
            7.3393011093139648e-01 -3.1632736325263977e-01</leafValues></_>
        <_>
          <internalNodes>
            0 -1 37 -3.2145352452062070e-04</internalNodes>
          <leafValues>
            -6.7838072776794434e-01 2.9785087704658508e-01</leafValues></_>
        <_>
          <internalNodes>
            0 -1 17 -3.6976032424718142e-04</internalNodes>
          <leafValues>
            -6.2547326087951660e-01 2.4604555964469910e-01</leafValues></_>
        <_>
          <internalNodes>
            0 -1 54 1.6970789874903858e-04</internalNodes>
          <leafValues>
            2.0097982883453369e-01 -7.7274763584136963e-01</leafValues></_>
        <_>
          <internalNodes>
            0 -1 46 1.2654848978854716e-04</internalNodes>
          <leafValues>
            2.1447370946407318e-01 -6.8858647346496582e-01</leafValues></_>
        <_>
          <internalNodes>
            0 -1 68 3.4253501798957586e-03</internalNodes>
          <leafValues>
            2.1466800570487976e-01 -6.2054252624511719e-01</leafValues></_></weakClassifiers></_>
    <!-- stage 1 -->
    <_>
      <maxWeakCount>6</maxWeakCount>
      <stageThreshold>-1.3705831766128540e+00</stageThreshold>
      <weakClassifiers>
        <_>
          <internalNodes>
            0 -1 84 -1.0039673000574112e-01</internalNodes>
          <leafValues>
            4.7169810533523560e-01 -7.9190403223037720e-01</leafValues></_>
        <_>
          <internalNodes>
            0 -1 5 -5.5939645972102880e-04</internalNodes>
          <leafValues>
            -8.4090143442153931e-01 1.2493604421615601e-01</leafValues></_>
        <_>
          <internalNodes>
            0 -1 82 -8.3184793591499329e-02</internalNodes>
          <leafValues>
            6.0019624233245850e-01 -3.1464946269989014e-01</leafValues></_>
        <_>
          <internalNodes>
            0 -1 34 -3.0929176136851311e-04</internalNodes>
          <leafValues>
            -5.8353495597839355e-01 2.3651358485221863e-01</leafValues></_>
        <_>
          <internalNodes>
            0 -1 34 3.4937227610498667e-04</internalNodes>
          <leafValues>
            2.5993108749389648e-01 -6.1969739198684692e-01</leafValues></_>
        <_>
          <internalNodes>
            0 -1 6 -5.5596685409545898e-01</internalNodes>
          <leafValues>
            -9.7722369432449341e-01 8.0427162349224091e-02</leafValues></_></weakClassifiers></_>
    <!-- stage 2 -->
    <_>
      <maxWeakCount>8</maxWeakCount>
      <stageThreshold>-1.4731634855270386e+00</stageThreshold>
      <weakClassifiers>
        <_>
          <internalNodes>
            0 -1 74 6.4650163054466248e-02</internalNodes>
          <leafValues>
            -7.7449822425842285e-01 5.4716980457305908e-01</leafValues></_>
        <_>
          <internalNodes>
            0 -1 47 -9.2236615717411041e-02</internalNodes>
          <leafValues>
            5.5072462558746338e-01 -4.0523555874824524e-01</leafValues></_>
        <_>
          <internalNodes>
            0 -1 22 1.1796509170380887e-05</internalNodes>
          <leafValues>
            1.8573284149169922e-01 -6.6030174493789673e-01</leafValues></_>
        <_>
          <internalNodes>
            0 -1 87 7.5203299522399902e-02</internalNodes>
          <leafValues>
            -2.1584801375865936e-01 6.0718393325805664e-01</leafValues></_>
        <_>
          <internalNodes>
            0 -1 26 1.7343428730964661e-01</internalNodes>
          <leafValues>
            1.3004200160503387e-01 -9.6415776014328003e-01</leafValues></_>
        <_>
          <internalNodes>
            0 -1 16 2.0105931162834167e-01</internalNodes>
          <leafValues>
            1.3116297125816345e-01 -8.8295477628707886e-01</leafValues></_>
        <_>
          <internalNodes>
            0 -1 65 2.4491513613611460e-03</internalNodes>
          <leafValues>
            -3.9107242226600647e-01 3.4288883209228516e-01</leafValues></_>
        <_>
          <internalNodes>
            0 -1 61 1.7309555551037192e-04</internalNodes>
          <leafValues>
            1.4670944213867188e-01 -7.8912013769149780e-01</leafValues></_></weakClassifiers></_>
    <!-- stage 3 -->
    <_>
      <maxWeakCount>9</maxWeakCount>
      <stageThreshold>-1.5437630414962769e+00</stageThreshold>
      <weakClassifiers>
        <_>
          <internalNodes>
            0 -1 90 -8.5478886961936951e-02</internalNodes>
          <leafValues>
            2.2543352842330933e-01 -7.8440231084823608e-01</leafValues></_>
        <_>
          <internalNodes>
            0 -1 36 -8.6439229547977448e-02</internalNodes>
          <leafValues>
            4.5317941904067993e-01 -4.4905591011047363e-01</leafValues></_>
        <_>
          <internalNodes>
            0 -1 13 -4.0216860361397266e-04</internalNodes>
          <leafValues>
            2.8266319632530212e-01 -4.2946255207061768e-01</leafValues></_>
        <_>
          <internalNodes>
            0 -1 88 -3.5959757864475250e-02</internalNodes>
          <leafValues>
            6.0701310634613037e-01 -1.7735327780246735e-01</leafValues></_>
        <_>
          <internalNodes>
            0 -1 95 -1.3618567027151585e-03</internalNodes>
          <leafValues>
            3.1446799635887146e-01 -3.9077019691467285e-01</leafValues></_>
        <_>
          <internalNodes>
            0 -1 29 -2.5400328636169434e-01</internalNodes>
          <leafValues>
            -9.8907756805419922e-01 1.1997736245393753e-01</leafValues></_>
        <_>
          <internalNodes>
            0 -1 52 1.1280777107458562e-04</internalNodes>
          <leafValues>
            1.2771786749362946e-01 -7.2292822599411011e-01</leafValues></_>
        <_>
          <internalNodes>
            0 -1 18 5.6370969861745834e-02</internalNodes>
          <leafValues>
            1.0498456656932831e-01 -8.7366110086441040e-01</leafValues></_>
        <_>
          <internalNodes>
            0 -1 41 -7.7630937099456787e-02</internalNodes>
          <leafValues>
            4.8000934720039368e-01 -2.2263707220554352e-01</leafValues></_></weakClassifiers></_>
    <!-- stage 4 -->
    <_>
      <maxWeakCount>11</maxWeakCount>
      <stageThreshold>-1.8466304540634155e+00</stageThreshold>
      <weakClassifiers>
        <_>
          <internalNodes>
            0 -1 51 9.5509633421897888e-02</internalNodes>
          <leafValues>
            -7.6367360353469849e-01 6.0000002384185791e-01</leafValues></_>
        <_>
          <internalNodes>
            0 -1 55 -1.3610112364403903e-04</internalNodes>
          <leafValues>
            -7.6079934835433960e-01 4.4400896877050400e-03</leafValues></_>
        <_>
          <internalNodes>
            0 -1 21 -1.5427787730004638e-04</internalNodes>
          <leafValues>
            -7.3593294620513916e-01 1.4867626130580902e-01</leafValues></_>
        <_>
          <internalNodes>
            0 -1 35 7.9235999146476388e-04</internalNodes>
          <leafValues>
            -5.1748847961425781e-01 2.3178416490554810e-01</leafValues></_>
        <_>
          <internalNodes>
            0 -1 62 1.4648698561359197e-04</internalNodes>
          <leafValues>
            1.8812261521816254e-01 -6.6280531883239746e-01</leafValues></_>
        <_>
          <internalNodes>
            0 -1 97 -2.1403652499429882e-04</internalNodes>
          <leafValues>
            -7.3149478435516357e-01 1.4519840478897095e-01</leafValues></_>
        <_>
          <internalNodes>
            0 -1 20 -1.1806093971244991e-04</internalNodes>
          <leafValues>
            -5.2050030231475830e-01 2.0090840756893158e-01</leafValues></_>
        <_>
          <internalNodes>
            0 -1 98 -2.5108471512794495e-02</internalNodes>
          <leafValues>
            6.1493986845016479e-01 -1.7628824710845947e-01</leafValues></_>
        <_>
          <internalNodes>
            0 -1 115 1.4910599566064775e-04</internalNodes>
          <leafValues>
            1.7157484591007233e-01 -6.1291080713272095e-01</leafValues></_>
        <_>
          <internalNodes>
            0 -1 77 -7.1577582275494933e-04</internalNodes>
          <leafValues>
            2.6197931170463562e-01 -3.6151349544525146e-01</leafValues></_>
        <_>
          <internalNodes>
            0 -1 30 -2.8503424255177379e-04</internalNodes>
          <leafValues>
            -6.9379717111587524e-01 1.3976858556270599e-01</leafValues></_></weakClassifiers></_>
    <!-- stage 5 -->
    <_>
      <maxWeakCount>13</maxWeakCount>
      <stageThreshold>-1.7964538335800171e+00</stageThreshold>
      <weakClassifiers>
        <_>
          <internalNodes>
            0 -1 94 -7.1175349876284599e-03</internalNodes>
          <leafValues>
            5.8974361419677734e-01 -7.6463699340820313e-01</leafValues></_>
        <_>
          <internalNodes>
            0 -1 33 -1.0692895739339292e-04</internalNodes>
          <leafValues>
            -7.3741173744201660e-01 -7.2515420615673065e-02</leafValues></_>
        <_>
          <internalNodes>
            0 -1 25 3.6475289380177855e-04</internalNodes>
          <leafValues>
            -5.4043245315551758e-01 1.6081349551677704e-01</leafValues></_>
        <_>
          <internalNodes>
            0 -1 27 1.1655814945697784e-02</internalNodes>
          <leafValues>
            1.5790705382823944e-01 -6.6408455371856689e-01</leafValues></_>
        <_>
          <internalNodes>
            0 -1 33 1.2408493785187602e-04</internalNodes>
          <leafValues>
            1.5418684482574463e-01 -6.3437384366989136e-01</leafValues></_>
        <_>
          <internalNodes>
            0 -1 92 -1.3504945854947437e-05</internalNodes>
          <leafValues>
            -5.5345660448074341e-01 1.2521027028560638e-01</leafValues></_>
        <_>
          <internalNodes>
            0 -1 73 -1.0263507720082998e-03</internalNodes>
          <leafValues>
            2.5984999537467957e-01 -3.4709298610687256e-01</leafValues></_>
        <_>
          <internalNodes>
            0 -1 23 -1.2282965704798698e-02</internalNodes>
          <leafValues>
            -7.5343996286392212e-01 1.2196869403123856e-01</leafValues></_>
        <_>
          <internalNodes>
            0 -1 24 2.5620428845286369e-02</internalNodes>
          <leafValues>
            9.0111106634140015e-02 -7.6299226284027100e-01</leafValues></_>
        <_>
          <internalNodes>
            0 -1 8 -7.3826812207698822e-02</internalNodes>
          <leafValues>
            4.2528697848320007e-01 -2.0904055237770081e-01</leafValues></_>
        <_>
          <internalNodes>
            0 -1 42 2.2051451378501952e-04</internalNodes>
          <leafValues>
            1.3946337997913361e-01 -6.6577053070068359e-01</leafValues></_>
        <_>
          <internalNodes>
            0 -1 105 -1.4619424007833004e-02</internalNodes>
          <leafValues>
            -7.7366989850997925e-01 9.8868772387504578e-02</leafValues></_>
        <_>
          <internalNodes>
            0 -1 107 -7.3801609687507153e-04</internalNodes>
          <leafValues>
            2.3640006780624390e-01 -3.7084776163101196e-01</leafValues></_></weakClassifiers></_>
    <!-- stage 6 -->
    <_>
      <maxWeakCount>15</maxWeakCount>
      <stageThreshold>-1.9205354452133179e+00</stageThreshold>
      <weakClassifiers>
        <_>
          <internalNodes>
            0 -1 96 -8.3029177039861679e-03</internalNodes>
          <leafValues>
            4.3137255311012268e-01 -7.6945751905441284e-01</leafValues></_>
        <_>
          <internalNodes>
            0 -1 78 -1.0131751187145710e-03</internalNodes>
          <leafValues>
            5.2482832223176956e-02 -5.5823802947998047e-01</leafValues></_>
        <_>
          <internalNodes>
            0 -1 113 -1.3928527478128672e-03</internalNodes>
          <leafValues>
            3.0380877852439880e-01 -3.2016819715499878e-01</leafValues></_>
        <_>
          <internalNodes>
            0 -1 106 -1.0617043077945709e-01</internalNodes>
          <leafValues>
            -8.2331281900405884e-01 9.2327266931533813e-02</leafValues></_>
        <_>
          <internalNodes>
            0 -1 111 -2.1637319587171078e-03</internalNodes>
          <leafValues>
            3.1145820021629333e-01 -3.2030904293060303e-01</leafValues></_>
        <_>
          <internalNodes>
            0 -1 69 -9.1877001977991313e-05</internalNodes>
          <leafValues>
            -6.3478589057922363e-01 1.0479575395584106e-01</leafValues></_>
        <_>
          <internalNodes>
            0 -1 9 2.9755514115095139e-02</internalNodes>
          <leafValues>
            1.2659901380538940e-01 -7.6094418764114380e-01</leafValues></_>
        <_>
          <internalNodes>
            0 -1 32 -1.5397978131659329e-04</internalNodes>
          <leafValues>
            -6.0424578189849854e-01 1.1312202364206314e-01</leafValues></_>
        <_>
          <internalNodes>
            0 -1 4 2.9531672596931458e-01</internalNodes>
          <leafValues>
            5.4151549935340881e-02 -1.</leafValues></_>
        <_>
          <internalNodes>
            0 -1 45 -5.8093694970011711e-03</internalNodes>
          <leafValues>
            -7.7253782749176025e-01 6.5953850746154785e-02</leafValues></_>
        <_>
          <internalNodes>
            0 -1 80 -4.6614753082394600e-03</internalNodes>
          <leafValues>
            4.3785545229911804e-01 -1.8268406391143799e-01</leafValues></_>
        <_>
          <internalNodes>
            0 -1 72 -2.3855790495872498e-03</internalNodes>
          <leafValues>
            2.8404742479324341e-01 -2.5902530550956726e-01</leafValues></_>
        <_>
          <internalNodes>
            0 -1 15 -8.9155379100702703e-05</internalNodes>
          <leafValues>
            2.1431781351566315e-01 -3.1198602914810181e-01</leafValues></_>
        <_>
          <internalNodes>
            0 -1 50 -1.6885406512301415e-04</internalNodes>
          <leafValues>
            -6.7788600921630859e-01 1.0765229165554047e-01</leafValues></_>
        <_>
          <internalNodes>
            0 -1 60 -7.5158604886382818e-05</internalNodes>
          <leafValues>
            2.4454550445079803e-01 -2.8777700662612915e-01</leafValues></_></weakClassifiers></_>
    <!-- stage 7 -->
    <_>
      <maxWeakCount>14</maxWeakCount>
      <stageThreshold>-1.5864231586456299e+00</stageThreshold>
      <weakClassifiers>
        <_>
          <internalNodes>
            0 -1 79 6.5418437123298645e-02</internalNodes>
          <leafValues>
            -7.6079344749450684e-01 6.3636362552642822e-01</leafValues></_>
        <_>
          <internalNodes>
            0 -1 2 9.6614129142835736e-04</internalNodes>
          <leafValues>
            -6.4252656698226929e-01 2.2078931331634521e-02</leafValues></_>
        <_>
          <internalNodes>
            0 -1 63 -8.2032009959220886e-02</internalNodes>
          <leafValues>
            6.2124568223953247e-01 -1.6523112356662750e-01</leafValues></_>
        <_>
          <internalNodes>
            0 -1 49 -4.4541396200656891e-03</internalNodes>
          <leafValues>
            2.6955407857894897e-01 -3.4456768631935120e-01</leafValues></_>
        <_>
          <internalNodes>
            0 -1 43 -9.1545662144199014e-06</internalNodes>
          <leafValues>
            -5.1581895351409912e-01 1.4710694551467896e-01</leafValues></_>
        <_>
          <internalNodes>
            0 -1 109 9.2902081087231636e-03</internalNodes>
          <leafValues>
            9.6159800887107849e-02 -9.0783691406250000e-01</leafValues></_>
        <_>
          <internalNodes>
            0 -1 57 2.6168031617999077e-02</internalNodes>
          <leafValues>
            7.1813747286796570e-02 -7.3666495084762573e-01</leafValues></_>
        <_>
          <internalNodes>
            0 -1 31 -2.4834301439113915e-04</internalNodes>
          <leafValues>
            2.4622993171215057e-01 -3.0303558707237244e-01</leafValues></_>
        <_>
          <internalNodes>
            0 -1 56 -7.9583749175071716e-02</internalNodes>
          <leafValues>
            5.8614850044250488e-01 -1.2575174868106842e-01</leafValues></_>
        <_>
          <internalNodes>
            0 -1 91 -6.0032568871974945e-02</internalNodes>
          <leafValues>
            4.8520529270172119e-01 -1.5656359493732452e-01</leafValues></_>
        <_>
          <internalNodes>
            0 -1 100 -1.0029422810475808e-05</internalNodes>
          <leafValues>
            -4.8717531561851501e-01 1.8396674096584320e-01</leafValues></_>
        <_>
          <internalNodes>
            0 -1 103 -6.5338332206010818e-04</internalNodes>
          <leafValues>
            2.4934434890747070e-01 -3.2734060287475586e-01</leafValues></_>
        <_>
          <internalNodes>
            0 -1 118 1.8228813132736832e-04</internalNodes>
          <leafValues>
            1.1648166924715042e-01 -5.8487701416015625e-01</leafValues></_>
        <_>
          <internalNodes>
            0 -1 116 -1.2502857134677470e-04</internalNodes>
          <leafValues>
            -4.4518694281578064e-01 1.3441032171249390e-01</leafValues></_></weakClassifiers></_>
    <!-- stage 8 -->
    <_>
      <maxWeakCount>19</maxWeakCount>
      <stageThreshold>-1.9251981973648071e+00</stageThreshold>
      <weakClassifiers>
        <_>
          <internalNodes>
            0 -1 108 -2.1334718912839890e-02</internalNodes>
          <leafValues>
            1. -7.5448757410049438e-01</leafValues></_>
        <_>
          <internalNodes>
            0 -1 67 -7.8960694372653961e-02</internalNodes>
          <leafValues>
            3.6097341775894165e-01 -3.6781635880470276e-01</leafValues></_>
        <_>
          <internalNodes>
            0 -1 81 -3.2029286026954651e-02</internalNodes>
          <leafValues>
            6.5700560808181763e-01 -1.2646973133087158e-01</leafValues></_>
        <_>
          <internalNodes>
            0 -1 19 3.3415365032851696e-04</internalNodes>
          <leafValues>
            -3.1372088193893433e-01 2.1697871387004852e-01</leafValues></_>
        <_>
          <internalNodes>
            0 -1 7 8.5227591625880450e-05</internalNodes>
          <leafValues>
            -3.1238403916358948e-01 2.1113520860671997e-01</leafValues></_>
        <_>
          <internalNodes>
            0 -1 10 1.3133721949998289e-04</internalNodes>
          <leafValues>
            1.1423403769731522e-01 -5.6350719928741455e-01</leafValues></_>
        <_>
          <internalNodes>
            0 -1 66 1.4848805963993073e-02</internalNodes>
          <leafValues>
            8.5551381111145020e-02 -8.3442676067352295e-01</leafValues></_>
        <_>
          <internalNodes>
            0 -1 76 1.1001508682966232e-03</internalNodes>
          <leafValues>
            -2.2247336804866791e-01 2.6392966508865356e-01</leafValues></_>
        <_>
          <internalNodes>
            0 -1 86 -3.6608416587114334e-02</internalNodes>
          <leafValues>
            4.1639009118080139e-01 -1.6528446972370148e-01</leafValues></_>
        <_>
          <internalNodes>
            0 -1 93 2.7459848672151566e-02</internalNodes>
          <leafValues>
            1.1400432139635086e-01 -7.5495100021362305e-01</leafValues></_>
        <_>
          <internalNodes>
            0 -1 112 -5.6157691869884729e-04</internalNodes>
          <leafValues>
            2.6487085223197937e-01 -2.7495008707046509e-01</leafValues></_>
        <_>
          <internalNodes>
            0 -1 71 4.8918591346591711e-04</internalNodes>
          <leafValues>
            -2.6450639963150024e-01 2.5596880912780762e-01</leafValues></_>
        <_>
          <internalNodes>
            0 -1 117 2.0495896751526743e-04</internalNodes>
          <leafValues>
            1.0515132546424866e-01 -5.9855115413665771e-01</leafValues></_>
        <_>
          <internalNodes>
            0 -1 102 -2.0548220723867416e-02</internalNodes>
          <leafValues>
            -6.3803339004516602e-01 9.0194590389728546e-02</leafValues></_>
        <_>
          <internalNodes>
            0 -1 64 -1.1646624443528708e-05</internalNodes>
          <leafValues>
            -4.4341775774955750e-01 1.2722067534923553e-01</leafValues></_>
        <_>
          <internalNodes>
            0 -1 70 -1.1222117791476194e-05</internalNodes>
          <leafValues>
            -4.9408283829689026e-01 1.0402414947748184e-01</leafValues></_>
        <_>
          <internalNodes>
            0 -1 44 3.1282980926334858e-03</internalNodes>
          <leafValues>
            6.9571718573570251e-02 -7.9826790094375610e-01</leafValues></_>
        <_>
          <internalNodes>
            0 -1 53 4.3381901923567057e-04</internalNodes>
          <leafValues>
            -2.8762862086296082e-01 2.4235451221466064e-01</leafValues></_>
        <_>
          <internalNodes>
            0 -1 104 -4.5934435911476612e-04</internalNodes>
          <leafValues>
            1.7907185852527618e-01 -3.2508227229118347e-01</leafValues></_></weakClassifiers></_>
    <!-- stage 9 -->
    <_>
      <maxWeakCount>18</maxWeakCount>
      <stageThreshold>-1.9332699775695801e+00</stageThreshold>
      <weakClassifiers>
        <_>
          <internalNodes>
            0 -1 110 8.6017046123743057e-03</internalNodes>
          <leafValues>
            -7.5499564409255981e-01 1.</leafValues></_>
        <_>
          <internalNodes>
            0 -1 14 1.6985705494880676e-01</internalNodes>
          <leafValues>
            -3.2245406508445740e-01 6.7211449146270752e-01</leafValues></_>
        <_>
          <internalNodes>
            0 -1 59 -2.2578403353691101e-01</internalNodes>
          <leafValues>
            -9.2868638038635254e-01 9.1148830950260162e-02</leafValues></_>
        <_>
          <internalNodes>
            0 -1 89 9.2492245137691498e-02</internalNodes>
          <leafValues>
            -1.1802995204925537e-01 6.7534810304641724e-01</leafValues></_>
        <_>
          <internalNodes>
            0 -1 38 -9.0117231011390686e-03</internalNodes>
          <leafValues>
            -7.3862057924270630e-01 1.0467053204774857e-01</leafValues></_>
        <_>
          <internalNodes>
            0 -1 28 -3.2403070479631424e-02</internalNodes>
          <leafValues>
            3.4431228041648865e-01 -1.7943657934665680e-01</leafValues></_>
        <_>
          <internalNodes>
            0 -1 0 -1.1694212844304275e-05</internalNodes>
          <leafValues>
            -4.4109082221984863e-01 1.5332959592342377e-01</leafValues></_>
        <_>
          <internalNodes>
            0 -1 114 7.4952993600163609e-05</internalNodes>
          <leafValues>
            -2.5243946909904480e-01 2.5139772891998291e-01</leafValues></_>
        <_>
          <internalNodes>
            0 -1 39 -8.1971384584903717e-02</internalNodes>
          <leafValues>
            -6.4785540103912354e-01 1.0540078580379486e-01</leafValues></_>
        <_>
          <internalNodes>
            0 -1 83 -1.7498619854450226e-02</internalNodes>
          <leafValues>
            2.6328295469284058e-01 -2.4893647432327271e-01</leafValues></_>
        <_>
          <internalNodes>
            0 -1 99 1.4966304297558963e-04</internalNodes>
          <leafValues>
            1.1927987635135651e-01 -5.3369855880737305e-01</leafValues></_>
        <_>
          <internalNodes>
            0 -1 12 -3.4289740142412484e-04</internalNodes>
          <leafValues>
            2.1970129013061523e-01 -2.8002408146858215e-01</leafValues></_>
        <_>
          <internalNodes>
            0 -1 75 -1.3641849160194397e-02</internalNodes>
          <leafValues>
            3.7268590927124023e-01 -1.6067537665367126e-01</leafValues></_>
        <_>
          <internalNodes>
            0 -1 40 1.4269052073359489e-02</internalNodes>
          <leafValues>
            8.1842228770256042e-02 -7.2580021619796753e-01</leafValues></_>
        <_>
          <internalNodes>
            0 -1 48 3.1625191331841052e-04</internalNodes>
          <leafValues>
            -2.6178929209709167e-01 2.1820841729640961e-01</leafValues></_>
        <_>
          <internalNodes>
            0 -1 11 1.3596653298009187e-04</internalNodes>
          <leafValues>
            1.2282142043113708e-01 -4.8699623346328735e-01</leafValues></_>
        <_>
          <internalNodes>
            0 -1 3 -6.6861554980278015e-02</internalNodes>
          <leafValues>
            3.1392201781272888e-01 -2.0528012514114380e-01</leafValues></_>
        <_>
          <internalNodes>
            0 -1 101 -3.7610530853271484e-04</internalNodes>
          <leafValues>
            2.0540408790111542e-01 -3.3681207895278931e-01</leafValues></_></weakClassifiers></_></stages>
  <features>
    <_>
      <rects>
        <_>
          0 0 2 1 -1.</_>
        <_>
          1 0 1 1 2.</_></rects>
      <tilted>0</tilted></_>
    <_>
      <rects>
        <_>
          0 0 1 18 -1.</_>
        <_>
          0 9 1 9 2.</_></rects>
      <tilted>0</tilted></_>
    <_>
      <rects>
        <_>
          0 0 10 2 -1.</_>
        <_>
          5 0 5 2 2.</_></rects>
      <tilted>0</tilted></_>
    <_>
      <rects>
        <_>
          0 0 15 24 -1.</_>
        <_>
          5 0 5 24 3.</_></rects>
      <tilted>0</tilted></_>
    <_>
      <rects>
        <_>
          0 0 14 23 -1.</_>
        <_>
          7 0 7 23 2.</_></rects>
      <tilted>0</tilted></_>
    <_>
      <rects>
        <_>
          0 0 16 2 -1.</_>
        <_>
          8 0 8 2 2.</_></rects>
      <tilted>0</tilted></_>
    <_>
      <rects>
        <_>
          0 0 22 24 -1.</_>
        <_>
          0 12 22 12 2.</_></rects>
      <tilted>0</tilted></_>
    <_>
      <rects>
        <_>
          0 1 2 8 -1.</_>
        <_>
          0 5 2 4 2.</_></rects>
      <tilted>0</tilted></_>
    <_>
      <rects>
        <_>
          0 1 14 14 -1.</_>
        <_>
          0 1 7 7 2.</_>
        <_>
          7 8 7 7 2.</_></rects>
      <tilted>0</tilted></_>
    <_>
      <rects>
        <_>
          0 1 24 1 -1.</_>
        <_>
          12 1 12 1 2.</_></rects>
      <tilted>0</tilted></_>
    <_>
      <rects>
        <_>
          0 2 1 2 -1.</_>
        <_>
          0 3 1 1 2.</_></rects>
      <tilted>0</tilted></_>
    <_>
      <rects>
        <_>
          0 5 1 2 -1.</_>
        <_>
          0 6 1 1 2.</_></rects>
      <tilted>0</tilted></_>
    <_>
      <rects>
        <_>
          0 6 4 18 -1.</_>
        <_>
          0 6 2 9 2.</_>
        <_>
          2 15 2 9 2.</_></rects>
      <tilted>0</tilted></_>
    <_>
      <rects>
        <_>
          0 6 6 16 -1.</_>
        <_>
          2 6 2 16 3.</_></rects>
      <tilted>0</tilted></_>
    <_>
      <rects>
        <_>
          0 6 12 16 -1.</_>
        <_>
          4 6 4 16 3.</_></rects>
      <tilted>0</tilted></_>
    <_>
      <rects>
        <_>
          0 8 6 7 -1.</_>
        <_>
          2 8 2 7 3.</_></rects>
      <tilted>0</tilted></_>
    <_>
      <rects>
        <_>
          0 12 24 12 -1.</_>
        <_>
          12 12 12 12 2.</_></rects>
      <tilted>0</tilted></_>
    <_>
      <rects>
        <_>
          0 17 1 4 -1.</_>
        <_>
          0 19 1 2 2.</_></rects>
      <tilted>0</tilted></_>
    <_>
      <rects>
        <_>
          0 17 24 3 -1.</_>
        <_>
          12 17 12 3 2.</_></rects>
      <tilted>0</tilted></_>
    <_>
      <rects>
        <_>
          0 21 18 2 -1.</_>
        <_>
          9 21 9 2 2.</_></rects>
      <tilted>0</tilted></_>
    <_>
      <rects>
        <_>
          0 22 2 1 -1.</_>
        <_>
          1 22 1 1 2.</_></rects>
      <tilted>0</tilted></_>
    <_>
      <rects>
        <_>
          0 22 2 2 -1.</_>
        <_>
          0 22 1 1 2.</_>
        <_>
          1 23 1 1 2.</_></rects>
      <tilted>0</tilted></_>
    <_>
      <rects>
        <_>
          0 23 2 1 -1.</_>
        <_>
          1 23 1 1 2.</_></rects>
      <tilted>0</tilted></_>
    <_>
      <rects>
        <_>
          0 23 24 1 -1.</_>
        <_>
          8 23 8 1 3.</_></rects>
      <tilted>0</tilted></_>
    <_>
      <rects>
        <_>
          1 0 2 18 -1.</_>
        <_>
          1 9 2 9 2.</_></rects>
      <tilted>0</tilted></_>
    <_>
      <rects>
        <_>
          1 0 12 1 -1.</_>
        <_>
          7 0 6 1 2.</_></rects>
      <tilted>0</tilted></_>
    <_>
      <rects>
        <_>
          1 0 9 22 -1.</_>
        <_>
          1 11 9 11 2.</_></rects>
      <tilted>0</tilted></_>
    <_>
      <rects>
        <_>
          1 1 12 1 -1.</_>
        <_>
          7 1 6 1 2.</_></rects>
      <tilted>0</tilted></_>
    <_>
      <rects>
        <_>
          1 3 9 18 -1.</_>
        <_>
          4 3 3 18 3.</_></rects>
      <tilted>0</tilted></_>
    <_>
      <rects>
        <_>
          1 9 22 15 -1.</_>
        <_>
          12 9 11 15 2.</_></rects>
      <tilted>0</tilted></_>
    <_>
      <rects>
        <_>
          1 11 1 3 -1.</_>
        <_>
          1 12 1 1 3.</_></rects>
      <tilted>0</tilted></_>
    <_>
      <rects>
        <_>
          1 14 6 9 -1.</_>
        <_>
          3 14 2 9 3.</_></rects>
      <tilted>0</tilted></_>
    <_>
      <rects>
        <_>
          1 20 1 2 -1.</_>
        <_>
          1 21 1 1 2.</_></rects>
      <tilted>0</tilted></_>
    <_>
      <rects>
        <_>
          1 22 2 1 -1.</_>
        <_>
          2 22 1 1 2.</_></rects>
      <tilted>0</tilted></_>
    <_>
      <rects>
        <_>
          1 23 4 1 -1.</_>
        <_>
          3 23 2 1 2.</_></rects>
      <tilted>0</tilted></_>
    <_>
      <rects>
        <_>
          2 0 8 3 -1.</_>
        <_>
          6 0 4 3 2.</_></rects>
      <tilted>0</tilted></_>
    <_>
      <rects>
        <_>
          2 0 12 16 -1.</_>
        <_>
          2 0 6 8 2.</_>
        <_>
          8 8 6 8 2.</_></rects>
      <tilted>0</tilted></_>
    <_>
      <rects>
        <_>
          2 1 1 4 -1.</_>
        <_>
          2 3 1 2 2.</_></rects>
      <tilted>0</tilted></_>
    <_>
      <rects>
        <_>
          2 1 7 4 -1.</_>
        <_>
          2 3 7 2 2.</_></rects>
      <tilted>0</tilted></_>
    <_>
      <rects>
        <_>
          2 1 7 20 -1.</_>
        <_>
          2 11 7 10 2.</_></rects>
      <tilted>0</tilted></_>
    <_>
      <rects>
        <_>
          2 2 12 1 -1.</_>
        <_>
          8 2 6 1 2.</_></rects>
      <tilted>0</tilted></_>
    <_>
      <rects>
        <_>
          2 6 15 17 -1.</_>
        <_>
          7 6 5 17 3.</_></rects>
      <tilted>0</tilted></_>
    <_>
      <rects>
        <_>
          2 11 1 3 -1.</_>
        <_>
          2 12 1 1 3.</_></rects>
      <tilted>0</tilted></_>
    <_>
      <rects>
        <_>
          2 21 2 1 -1.</_>
        <_>
          3 21 1 1 2.</_></rects>
      <tilted>0</tilted></_>
    <_>
      <rects>
        <_>
          2 22 6 1 -1.</_>
        <_>
          5 22 3 1 2.</_></rects>
      <tilted>0</tilted></_>
    <_>
      <rects>
        <_>
          2 23 12 1 -1.</_>
        <_>
          8 23 6 1 2.</_></rects>
      <tilted>0</tilted></_>
    <_>
      <rects>
        <_>
          3 1 1 2 -1.</_>
        <_>
          3 2 1 1 2.</_></rects>
      <tilted>0</tilted></_>
    <_>
      <rects>
        <_>
          3 1 12 14 -1.</_>
        <_>
          3 1 6 7 2.</_>
        <_>
          9 8 6 7 2.</_></rects>
      <tilted>0</tilted></_>
    <_>
      <rects>
        <_>
          3 2 4 2 -1.</_>
        <_>
          5 2 2 2 2.</_></rects>
      <tilted>0</tilted></_>
    <_>
      <rects>
        <_>
          3 3 9 21 -1.</_>
        <_>
          6 3 3 21 3.</_></rects>
      <tilted>0</tilted></_>
    <_>
      <rects>
        <_>
          3 8 1 2 -1.</_>
        <_>
          3 9 1 1 2.</_></rects>
      <tilted>0</tilted></_>
    <_>
      <rects>
        <_>
          3 10 18 2 -1.</_>
        <_>
          9 10 6 2 3.</_></rects>
      <tilted>0</tilted></_>
    <_>
      <rects>
        <_>
          3 16 1 2 -1.</_>
        <_>
          3 17 1 1 2.</_></rects>
      <tilted>0</tilted></_>
    <_>
      <rects>
        <_>
          3 16 4 6 -1.</_>
        <_>
          5 16 2 6 2.</_></rects>
      <tilted>0</tilted></_>
    <_>
      <rects>
        <_>
          3 17 1 2 -1.</_>
        <_>
          3 18 1 1 2.</_></rects>
      <tilted>0</tilted></_>
    <_>
      <rects>
        <_>
          4 0 1 2 -1.</_>
        <_>
          4 1 1 1 2.</_></rects>
      <tilted>0</tilted></_>
    <_>
      <rects>
        <_>
          4 4 10 14 -1.</_>
        <_>
          4 4 5 7 2.</_>
        <_>
          9 11 5 7 2.</_></rects>
      <tilted>0</tilted></_>
    <_>
      <rects>
        <_>
          4 5 12 2 -1.</_>
        <_>
          10 5 6 2 2.</_></rects>
      <tilted>0</tilted></_>
    <_>
      <rects>
        <_>
          4 6 10 10 -1.</_>
        <_>
          4 6 5 5 2.</_>
        <_>
          9 11 5 5 2.</_></rects>
      <tilted>0</tilted></_>
    <_>
      <rects>
        <_>
          4 8 14 16 -1.</_>
        <_>
          4 16 14 8 2.</_></rects>
      <tilted>0</tilted></_>
    <_>
      <rects>
        <_>
          4 9 6 2 -1.</_>
        <_>
          6 9 2 2 3.</_></rects>
      <tilted>0</tilted></_>
    <_>
      <rects>
        <_>
          5 0 1 2 -1.</_>
        <_>
          5 1 1 1 2.</_></rects>
      <tilted>0</tilted></_>
    <_>
      <rects>
        <_>
          5 2 1 2 -1.</_>
        <_>
          5 3 1 1 2.</_></rects>
      <tilted>0</tilted></_>
    <_>
      <rects>
        <_>
          5 8 10 10 -1.</_>
        <_>
          10 8 5 10 2.</_></rects>
      <tilted>0</tilted></_>
    <_>
      <rects>
        <_>
          5 10 1 2 -1.</_>
        <_>
          5 11 1 1 2.</_></rects>
      <tilted>0</tilted></_>
    <_>
      <rects>
        <_>
          5 15 10 2 -1.</_>
        <_>
          10 15 5 2 2.</_></rects>
      <tilted>0</tilted></_>
    <_>
      <rects>
        <_>
          5 23 18 1 -1.</_>
        <_>
          14 23 9 1 2.</_></rects>
      <tilted>0</tilted></_>
    <_>
      <rects>
        <_>
          6 0 12 14 -1.</_>
        <_>
          6 0 6 7 2.</_>
        <_>
          12 7 6 7 2.</_></rects>
      <tilted>0</tilted></_>
    <_>
      <rects>
        <_>
          6 1 1 22 -1.</_>
        <_>
          6 12 1 11 2.</_></rects>
      <tilted>0</tilted></_>
    <_>
      <rects>
        <_>
          6 1 4 1 -1.</_>
        <_>
          8 1 2 1 2.</_></rects>
      <tilted>0</tilted></_>
    <_>
      <rects>
        <_>
          6 2 6 1 -1.</_>
        <_>
          9 2 3 1 2.</_></rects>
      <tilted>0</tilted></_>
    <_>
      <rects>
        <_>
          6 15 12 1 -1.</_>
        <_>
          12 15 6 1 2.</_></rects>
      <tilted>0</tilted></_>
    <_>
      <rects>
        <_>
          6 16 13 4 -1.</_>
        <_>
          6 18 13 2 2.</_></rects>
      <tilted>0</tilted></_>
    <_>
      <rects>
        <_>
          6 19 8 4 -1.</_>
        <_>
          6 21 8 2 2.</_></rects>
      <tilted>0</tilted></_>
    <_>
      <rects>
        <_>
          7 0 6 16 -1.</_>
        <_>
          7 0 3 8 2.</_>
        <_>
          10 8 3 8 2.</_></rects>
      <tilted>0</tilted></_>
    <_>
      <rects>
        <_>
          7 6 10 6 -1.</_>
        <_>
          7 8 10 2 3.</_></rects>
      <tilted>0</tilted></_>
    <_>
      <rects>
        <_>
          7 9 15 3 -1.</_>
        <_>
          7 10 15 1 3.</_></rects>
      <tilted>0</tilted></_>
    <_>
      <rects>
        <_>
          7 20 5 4 -1.</_>
        <_>
          7 22 5 2 2.</_></rects>
      <tilted>0</tilted></_>
    <_>
      <rects>
        <_>
          7 20 7 4 -1.</_>
        <_>
          7 22 7 2 2.</_></rects>
      <tilted>0</tilted></_>
    <_>
      <rects>
        <_>
          8 0 4 16 -1.</_>
        <_>
          8 0 2 8 2.</_>
        <_>
          10 8 2 8 2.</_></rects>
      <tilted>0</tilted></_>
    <_>
      <rects>
        <_>
          8 8 3 13 -1.</_>
        <_>
          9 8 1 13 3.</_></rects>
      <tilted>0</tilted></_>
    <_>
      <rects>
        <_>
          8 10 6 7 -1.</_>
        <_>
          10 10 2 7 3.</_></rects>
      <tilted>0</tilted></_>
    <_>
      <rects>
        <_>
          9 6 8 15 -1.</_>
        <_>
          9 11 8 5 3.</_></rects>
      <tilted>0</tilted></_>
    <_>
      <rects>
        <_>
          9 8 9 12 -1.</_>
        <_>
          9 12 9 4 3.</_></rects>
      <tilted>0</tilted></_>
    <_>
      <rects>
        <_>
          10 0 10 14 -1.</_>
        <_>
          10 0 5 7 2.</_>
        <_>
          15 7 5 7 2.</_></rects>
      <tilted>0</tilted></_>
    <_>
      <rects>
        <_>
          10 0 12 14 -1.</_>
        <_>
          10 0 6 7 2.</_>
        <_>
          16 7 6 7 2.</_></rects>
      <tilted>0</tilted></_>
    <_>
      <rects>
        <_>
          10 2 6 18 -1.</_>
        <_>
          12 2 2 18 3.</_></rects>
      <tilted>0</tilted></_>
    <_>
      <rects>
        <_>
          10 3 9 12 -1.</_>
        <_>
          10 7 9 4 3.</_></rects>
      <tilted>0</tilted></_>
    <_>
      <rects>
        <_>
          10 4 6 17 -1.</_>
        <_>
          12 4 2 17 3.</_></rects>
      <tilted>0</tilted></_>
    <_>
      <rects>
        <_>
          10 9 12 14 -1.</_>
        <_>
          10 9 6 7 2.</_>
        <_>
          16 16 6 7 2.</_></rects>
      <tilted>0</tilted></_>
    <_>
      <rects>
        <_>
          11 0 8 14 -1.</_>
        <_>
          11 0 4 7 2.</_>
        <_>
          15 7 4 7 2.</_></rects>
      <tilted>0</tilted></_>
    <_>
      <rects>
        <_>
          11 0 10 16 -1.</_>
        <_>
          11 0 5 8 2.</_>
        <_>
          16 8 5 8 2.</_></rects>
      <tilted>0</tilted></_>
    <_>
      <rects>
        <_>
          11 1 2 1 -1.</_>
        <_>
          12 1 1 1 2.</_></rects>
      <tilted>0</tilted></_>
    <_>
      <rects>
        <_>
          12 0 9 4 -1.</_>
        <_>
          15 0 3 4 3.</_></rects>
      <tilted>0</tilted></_>
    <_>
      <rects>
        <_>
          12 7 2 4 -1.</_>
        <_>
          12 7 1 2 2.</_>
        <_>
          13 9 1 2 2.</_></rects>
      <tilted>0</tilted></_>
    <_>
      <rects>
        <_>
          12 7 6 11 -1.</_>
        <_>
          15 7 3 11 2.</_></rects>
      <tilted>0</tilted></_>
    <_>
      <rects>
        <_>
          12 9 3 2 -1.</_>
        <_>
          13 9 1 2 3.</_></rects>
      <tilted>0</tilted></_>
    <_>
      <rects>
        <_>
          13 1 2 1 -1.</_>
        <_>
          14 1 1 1 2.</_></rects>
      <tilted>0</tilted></_>
    <_>
      <rects>
        <_>
          13 4 1 18 -1.</_>
        <_>
          13 10 1 6 3.</_></rects>
      <tilted>0</tilted></_>
    <_>
      <rects>
        <_>
          13 22 2 2 -1.</_>
        <_>
          13 22 1 1 2.</_>
        <_>
          14 23 1 1 2.</_></rects>
      <tilted>0</tilted></_>
    <_>
      <rects>
        <_>
          13 23 2 1 -1.</_>
        <_>
          14 23 1 1 2.</_></rects>
      <tilted>0</tilted></_>
    <_>
      <rects>
        <_>
          14 0 10 3 -1.</_>
        <_>
          19 0 5 3 2.</_></rects>
      <tilted>0</tilted></_>
    <_>
      <rects>
        <_>
          14 15 10 3 -1.</_>
        <_>
          19 15 5 3 2.</_></rects>
      <tilted>0</tilted></_>
    <_>
      <rects>
        <_>
          14 18 2 6 -1.</_>
        <_>
          14 21 2 3 2.</_></rects>
      <tilted>0</tilted></_>
    <_>
      <rects>
        <_>
          15 4 4 15 -1.</_>
        <_>
          17 4 2 15 2.</_></rects>
      <tilted>0</tilted></_>
    <_>
      <rects>
        <_>
          15 19 8 3 -1.</_>
        <_>
          19 19 4 3 2.</_></rects>
      <tilted>0</tilted></_>
    <_>
      <rects>
        <_>
          16 0 8 24 -1.</_>
        <_>
          20 0 4 24 2.</_></rects>
      <tilted>0</tilted></_>
    <_>
      <rects>
        <_>
          16 6 4 17 -1.</_>
        <_>
          18 6 2 17 2.</_></rects>
      <tilted>0</tilted></_>
    <_>
      <rects>
        <_>
          17 0 2 4 -1.</_>
        <_>
          17 0 1 2 2.</_>
        <_>
          18 2 1 2 2.</_></rects>
      <tilted>0</tilted></_>
    <_>
      <rects>
        <_>
          17 0 6 3 -1.</_>
        <_>
          19 0 2 3 3.</_></rects>
      <tilted>0</tilted></_>
    <_>
      <rects>
        <_>
          17 1 2 1 -1.</_>
        <_>
          18 1 1 1 2.</_></rects>
      <tilted>0</tilted></_>
    <_>
      <rects>
        <_>
          17 15 6 9 -1.</_>
        <_>
          20 15 3 9 2.</_></rects>
      <tilted>0</tilted></_>
    <_>
      <rects>
        <_>
          18 0 6 1 -1.</_>
        <_>
          21 0 3 1 2.</_></rects>
      <tilted>0</tilted></_>
    <_>
      <rects>
        <_>
          18 0 6 2 -1.</_>
        <_>
          21 0 3 2 2.</_></rects>
      <tilted>0</tilted></_>
    <_>
      <rects>
        <_>
          20 3 3 3 -1.</_>
        <_>
          21 3 1 3 3.</_></rects>
      <tilted>0</tilted></_>
    <_>
      <rects>
        <_>
          21 14 2 2 -1.</_>
        <_>
          21 14 1 1 2.</_>
        <_>
          22 15 1 1 2.</_></rects>
      <tilted>0</tilted></_>
    <_>
      <rects>
        <_>
          22 9 1 2 -1.</_>
        <_>
          22 10 1 1 2.</_></rects>
      <tilted>0</tilted></_>
    <_>
      <rects>
        <_>
          23 0 1 2 -1.</_>
        <_>
          23 1 1 1 2.</_></rects>
      <tilted>0</tilted></_>
    <_>
      <rects>
        <_>
          23 9 1 2 -1.</_>
        <_>
          23 10 1 1 2.</_></rects>
      <tilted>0</tilted></_></features></cascade>
</opencv_storage>
