<?xml version="1.0"?>
<opencv_storage>
<stage6>
  <maxWeakCount>7</maxWeakCount>
  <stageThreshold>-1.6838923692703247e+00</stageThreshold>
  <weakClassifiers>
    <_>
      <internalNodes>
        0 -1 331682 2.2742785513401031e-02</internalNodes>
      <leafValues>
        -5.8259469270706177e-01 8.2266008853912354e-01</leafValues></_>
    <_>
      <internalNodes>
        0 -1 332732 -6.0037113726139069e-03</internalNodes>
      <leafValues>
        8.7511581182479858e-01 -3.7385264039039612e-01</leafValues></_>
    <_>
      <internalNodes>
        0 -1 215574 -1.8702218309044838e-02</internalNodes>
      <leafValues>
        -7.9369872808456421e-01 3.9178413152694702e-01</leafValues></_>
    <_>
      <internalNodes>
        0 -1 252643 -5.1787742413580418e-03</internalNodes>
      <leafValues>
        6.0673773288726807e-01 -3.8329067826271057e-01</leafValues></_>
    <_>
      <internalNodes>
        0 -1 341780 2.2532841830980033e-04</internalNodes>
      <leafValues>
        2.5009414553642273e-01 -9.3935257196426392e-01</leafValues></_>
    <_>
      <internalNodes>
        0 -1 844299 3.2858564518392086e-03</internalNodes>
      <leafValues>
        -5.4601490497589111e-01 4.7000893950462341e-01</leafValues></_>
    <_>
      <internalNodes>
        0 -1 831500 -1.1388954706490040e-02</internalNodes>
      <leafValues>
        7.4546515941619873e-01 -3.5361588001251221e-01</leafValues></_></weakClassifiers></stage6>
</opencv_storage>
