<?xml version="1.0"?>
<opencv_storage>
<stage9>
  <maxWeakCount>7</maxWeakCount>
  <stageThreshold>-1.6014611721038818e+00</stageThreshold>
  <weakClassifiers>
    <_>
      <internalNodes>
        0 -1 41839 -3.8760893046855927e-02</internalNodes>
      <leafValues>
        6.2139916419982910e-01 -5.8867609500885010e-01</leafValues></_>
    <_>
      <internalNodes>
        0 -1 176308 -1.1410648003220558e-02</internalNodes>
      <leafValues>
        5.9009057283401489e-01 -5.3705078363418579e-01</leafValues></_>
    <_>
      <internalNodes>
        0 -1 513462 -1.9224692136049271e-02</internalNodes>
      <leafValues>
        7.4808198213577271e-01 -3.7158745527267456e-01</leafValues></_>
    <_>
      <internalNodes>
        0 -1 514520 -1.5929693356156349e-02</internalNodes>
      <leafValues>
        7.2687017917633057e-01 -2.5755333900451660e-01</leafValues></_>
    <_>
      <internalNodes>
        0 -1 757617 -2.1173162385821342e-03</internalNodes>
      <leafValues>
        -8.4546989202499390e-01 2.8725630044937134e-01</leafValues></_>
    <_>
      <internalNodes>
        0 -1 79479 2.1333325654268265e-02</internalNodes>
      <leafValues>
        -4.5068326592445374e-01 4.6573469042778015e-01</leafValues></_>
    <_>
      <internalNodes>
        0 -1 555130 5.0652790378080681e-05</internalNodes>
      <leafValues>
        -7.2792744636535645e-01 3.1683346629142761e-01</leafValues></_></weakClassifiers></stage9>
</opencv_storage>
