<?xml version="1.0"?>
<opencv_storage>
<stage5>
  <maxWeakCount>6</maxWeakCount>
  <stageThreshold>-1.8762855529785156e+00</stageThreshold>
  <weakClassifiers>
    <_>
      <internalNodes>
        0 -1 831295 -2.1022975444793701e-02</internalNodes>
      <leafValues>
        3.6213991045951843e-01 -7.6409184932708740e-01</leafValues></_>
    <_>
      <internalNodes>
        0 -1 39919 3.9389426819980145e-03</internalNodes>
      <leafValues>
        -7.2977060079574585e-01 2.5354850292205811e-01</leafValues></_>
    <_>
      <internalNodes>
        0 -1 776261 -1.4536419883370399e-02</internalNodes>
      <leafValues>
        7.0456045866012573e-01 -3.7928593158721924e-01</leafValues></_>
    <_>
      <internalNodes>
        0 -1 640406 -9.8551996052265167e-04</internalNodes>
      <leafValues>
        -8.2302504777908325e-01 3.1045880913734436e-01</leafValues></_>
    <_>
      <internalNodes>
        0 -1 928363 9.4688893295824528e-04</internalNodes>
      <leafValues>
        3.1541663408279419e-01 -8.1360650062561035e-01</leafValues></_>
    <_>
      <internalNodes>
        0 -1 287617 -2.2261748381424695e-04</internalNodes>
      <leafValues>
        3.7899458408355713e-01 -6.2901258468627930e-01</leafValues></_></weakClassifiers></stage5>
</opencv_storage>
