<?xml version="1.0"?>
<opencv_storage>
<stage2>
  <maxWeakCount>6</maxWeakCount>
  <stageThreshold>-1.1209443807601929e+00</stageThreshold>
  <weakClassifiers>
    <_>
      <internalNodes>
        0 -1 774931 1.0073026642203331e-02</internalNodes>
      <leafValues>
        -6.7417675256729126e-01 7.6551723480224609e-01</leafValues></_>
    <_>
      <internalNodes>
        0 -1 861258 7.3284818790853024e-03</internalNodes>
      <leafValues>
        -4.3560826778411865e-01 7.6278054714202881e-01</leafValues></_>
    <_>
      <internalNodes>
        0 -1 415152 -2.4140765890479088e-04</internalNodes>
      <leafValues>
        -9.0039497613906860e-01 3.1661373376846313e-01</leafValues></_>
    <_>
      <internalNodes>
        0 -1 211797 3.5534054040908813e-02</internalNodes>
      <leafValues>
        -3.4525233507156372e-01 8.3610355854034424e-01</leafValues></_>
    <_>
      <internalNodes>
        0 -1 296024 -6.3221193850040436e-03</internalNodes>
      <leafValues>
        7.7706336975097656e-01 -4.2076632380485535e-01</leafValues></_>
    <_>
      <internalNodes>
        0 -1 415152 1.4211525558494031e-04</internalNodes>
      <leafValues>
        4.5742458105087280e-01 -6.5011543035507202e-01</leafValues></_></weakClassifiers></stage2>
</opencv_storage>
