<?xml version="1.0"?>
<opencv_storage>
<stage8>
  <maxWeakCount>5</maxWeakCount>
  <stageThreshold>-1.0402784347534180e+00</stageThreshold>
  <weakClassifiers>
    <_>
      <internalNodes>
        0 -1 814055 1.0230761952698231e-02</internalNodes>
      <leafValues>
        -5.8014643192291260e-01 7.3023253679275513e-01</leafValues></_>
    <_>
      <internalNodes>
        0 -1 446937 -6.8315938115119934e-03</internalNodes>
      <leafValues>
        3.6308595538139343e-01 -7.0951730012893677e-01</leafValues></_>
    <_>
      <internalNodes>
        0 -1 221065 -3.7324134609661996e-05</internalNodes>
      <leafValues>
        -7.8618395328521729e-01 2.8955551981925964e-01</leafValues></_>
    <_>
      <internalNodes>
        0 -1 764246 -6.8589963484555483e-04</internalNodes>
      <leafValues>
        3.1523832678794861e-01 -7.0899957418441772e-01</leafValues></_>
    <_>
      <internalNodes>
        0 -1 861966 5.5360193364322186e-03</internalNodes>
      <leafValues>
        -3.5227233171463013e-01 7.2629708051681519e-01</leafValues></_></weakClassifiers></stage8>
</opencv_storage>
