<?xml version="1.0"?>
<opencv_storage>
<stage0>
  <maxWeakCount>7</maxWeakCount>
  <stageThreshold>-1.4790421724319458e+00</stageThreshold>
  <weakClassifiers>
    <_>
      <internalNodes>
        0 -1 751338 -3.5976439714431763e-02</internalNodes>
      <leafValues>
        7.0879119634628296e-01 -7.5370371341705322e-01</leafValues></_>
    <_>
      <internalNodes>
        0 -1 658871 -2.6020785793662071e-02</internalNodes>
      <leafValues>
        8.4289073944091797e-01 -4.5772936940193176e-01</leafValues></_>
    <_>
      <internalNodes>
        0 -1 258822 -8.6616547778248787e-03</internalNodes>
      <leafValues>
        7.1703153848648071e-01 -5.0899577140808105e-01</leafValues></_>
    <_>
      <internalNodes>
        0 -1 813663 -1.1291090399026871e-02</internalNodes>
      <leafValues>
        8.6678153276443481e-01 -3.5550472140312195e-01</leafValues></_>
    <_>
      <internalNodes>
        0 -1 516536 3.9467780152335763e-04</internalNodes>
      <leafValues>
        4.0599700808525085e-01 -9.7936773300170898e-01</leafValues></_>
    <_>
      <internalNodes>
        0 -1 729766 5.1386065781116486e-02</internalNodes>
      <leafValues>
        -4.2118266224861145e-01 8.8332664966583252e-01</leafValues></_>
    <_>
      <internalNodes>
        0 -1 34885 1.7293777316808701e-02</internalNodes>
      <leafValues>
        -5.4251486063003540e-01 6.1207705736160278e-01</leafValues></_></weakClassifiers></stage0>
</opencv_storage>
