<?xml version="1.0"?>
<opencv_storage>
<stage7>
  <maxWeakCount>5</maxWeakCount>
  <stageThreshold>-1.1717413663864136e+00</stageThreshold>
  <weakClassifiers>
    <_>
      <internalNodes>
        0 -1 130199 2.0667545497417450e-02</internalNodes>
      <leafValues>
        -6.0000002384185791e-01 6.2204724550247192e-01</leafValues></_>
    <_>
      <internalNodes>
        0 -1 256847 -4.0135439485311508e-03</internalNodes>
      <leafValues>
        6.3688182830810547e-01 -4.3782699108123779e-01</leafValues></_>
    <_>
      <internalNodes>
        0 -1 222728 4.6825973549857736e-04</internalNodes>
      <leafValues>
        3.4269979596138000e-01 -7.7035939693450928e-01</leafValues></_>
    <_>
      <internalNodes>
        0 -1 827829 8.5569638758897781e-03</internalNodes>
      <leafValues>
        -6.0465693473815918e-01 3.8454163074493408e-01</leafValues></_>
    <_>
      <internalNodes>
        0 -1 221065 4.8137217163457535e-06</internalNodes>
      <leafValues>
        2.5190344452857971e-01 -9.3596416711807251e-01</leafValues></_></weakClassifiers></stage7>
</opencv_storage>
