<?xml version="1.0"?>
<opencv_storage>
<stage9>
  <maxWeakCount>18</maxWeakCount>
  <stageThreshold>-1.9332699775695801e+00</stageThreshold>
  <weakClassifiers>
    <_>
      <internalNodes>
        0 -1 148596 8.6017046123743057e-03</internalNodes>
      <leafValues>
        -7.5499564409255981e-01 1.</leafValues></_>
    <_>
      <internalNodes>
        0 -1 6067 1.6985705494880676e-01</internalNodes>
      <leafValues>
        -3.2245406508445740e-01 6.7211449146270752e-01</leafValues></_>
    <_>
      <internalNodes>
        0 -1 56057 -2.2578403353691101e-01</internalNodes>
      <leafValues>
        -9.2868638038635254e-01 9.1148830950260162e-02</leafValues></_>
    <_>
      <internalNodes>
        0 -1 111681 9.2492245137691498e-02</internalNodes>
      <leafValues>
        -1.1802995204925537e-01 6.7534810304641724e-01</leafValues></_>
    <_>
      <internalNodes>
        0 -1 27264 -9.0117231011390686e-03</internalNodes>
      <leafValues>
        -7.3862057924270630e-01 1.0467053204774857e-01</leafValues></_>
    <_>
      <internalNodes>
        0 -1 16496 -3.2403070479631424e-02</internalNodes>
      <leafValues>
        3.4431228041648865e-01 -1.7943657934665680e-01</leafValues></_>
    <_>
      <internalNodes>
        0 -1 0 -1.1694212844304275e-05</internalNodes>
      <leafValues>
        -4.4109082221984863e-01 1.5332959592342377e-01</leafValues></_>
    <_>
      <internalNodes>
        0 -1 158111 7.4952993600163609e-05</internalNodes>
      <leafValues>
        -2.5243946909904480e-01 2.5139772891998291e-01</leafValues></_>
    <_>
      <internalNodes>
        0 -1 27302 -8.1971384584903717e-02</internalNodes>
      <leafValues>
        -6.4785540103912354e-01 1.0540078580379486e-01</leafValues></_>
    <_>
      <internalNodes>
        0 -1 103519 -1.7498619854450226e-02</internalNodes>
      <leafValues>
        2.6328295469284058e-01 -2.4893647432327271e-01</leafValues></_>
    <_>
      <internalNodes>
        0 -1 133719 1.4966304297558963e-04</internalNodes>
      <leafValues>
        1.1927987635135651e-01 -5.3369855880737305e-01</leafValues></_>
    <_>
      <internalNodes>
        0 -1 5933 -3.4289740142412484e-04</internalNodes>
      <leafValues>
        2.1970129013061523e-01 -2.8002408146858215e-01</leafValues></_>
    <_>
      <internalNodes>
        0 -1 85153 -1.3641849160194397e-02</internalNodes>
      <leafValues>
        3.7268590927124023e-01 -1.6067537665367126e-01</leafValues></_>
    <_>
      <internalNodes>
        0 -1 28104 1.4269052073359489e-02</internalNodes>
      <leafValues>
        8.1842228770256042e-02 -7.2580021619796753e-01</leafValues></_>
    <_>
      <internalNodes>
        0 -1 39885 3.1625191331841052e-04</internalNodes>
      <leafValues>
        -2.6178929209709167e-01 2.1820841729640961e-01</leafValues></_>
    <_>
      <internalNodes>
        0 -1 4985 1.3596653298009187e-04</internalNodes>
      <leafValues>
        1.2282142043113708e-01 -4.8699623346328735e-01</leafValues></_>
    <_>
      <internalNodes>
        0 -1 399 -6.6861554980278015e-02</internalNodes>
      <leafValues>
        3.1392201781272888e-01 -2.0528012514114380e-01</leafValues></_>
    <_>
      <internalNodes>
        0 -1 134060 -3.7610530853271484e-04</internalNodes>
      <leafValues>
        2.0540408790111542e-01 -3.3681207895278931e-01</leafValues></_></weakClassifiers></stage9>
</opencv_storage>
