<?xml version="1.0"?>
<opencv_storage>
<stage14>
  <maxWeakCount>7</maxWeakCount>
  <stageThreshold>-1.1288357973098755e+00</stageThreshold>
  <weakClassifiers>
    <_>
      <internalNodes>
        0 -1 709694 -1.9845124334096909e-02</internalNodes>
      <leafValues>
        6.4077669382095337e-01 -5.5573505163192749e-01</leafValues></_>
    <_>
      <internalNodes>
        0 -1 604442 4.9163224175572395e-03</internalNodes>
      <leafValues>
        -5.5743288993835449e-01 4.2558532953262329e-01</leafValues></_>
    <_>
      <internalNodes>
        0 -1 604187 -5.9590134769678116e-03</internalNodes>
      <leafValues>
        5.5996239185333252e-01 -3.8066336512565613e-01</leafValues></_>
    <_>
      <internalNodes>
        0 -1 708196 6.1632901430130005e-02</internalNodes>
      <leafValues>
        -2.8445166349411011e-01 7.7814906835556030e-01</leafValues></_>
    <_>
      <internalNodes>
        0 -1 629275 -9.9688745103776455e-04</internalNodes>
      <leafValues>
        -7.6951849460601807e-01 3.0211713910102844e-01</leafValues></_>
    <_>
      <internalNodes>
        0 -1 607765 4.6286862343549728e-03</internalNodes>
      <leafValues>
        2.3244862258434296e-01 -7.6318830251693726e-01</leafValues></_>
    <_>
      <internalNodes>
        0 -1 85070 1.8050651997327805e-02</internalNodes>
      <leafValues>
        2.0349888503551483e-01 -7.8255605697631836e-01</leafValues></_></weakClassifiers></stage14>
</opencv_storage>
